tree
version=v4
num_class=1
num_tree_per_iteration=1
label_index=0
max_feature_idx=20
objective=regression
feature_names=price_avg bedrooms_avg bathrooms_avg sqft_avg rent_mom_pct hpi_mom_pct median_rent_apartment_1br median_rent_apartment_2br median_rent_apartment_3br active_rental_count avg_rental_days population migration_rate age_25_34_perc median_income unemployment_rate gdp_growth_rate prime_lending_rate housing_starts hpi_composite_sa rent_index
feature_infos=none none none none none [-0.02517447657028915:0.045045045045045029] none none none none none none none none none none none none none [451400:837400] none
tree_sizes=392 397 402 396 401 402 401 403 403 403 404 405 405 405 402 404 402 404 402 404 404 403

Tree=0
num_leaves=3
num_cat=0
split_feature=19 19
split_gain=5.23339e+11 1.01127e+10
threshold=584400.00000000012 540550.00000000012
decision_type=2 2
left_child=1 -1
right_child=-2 -3
leaf_value=622655.23818824405 632608.57137509296 624150.71894620685
leaf_weight=20 24 26
leaf_count=20 24 26
internal_value=626623 623501
internal_weight=70 46
internal_count=70 46
is_linear=0
shrinkage=1


Tree=1
num_leaves=3
num_cat=0
split_feature=19 19
split_gain=4.72313e+11 9.12671e+09
threshold=584400.00000000012 540550.00000000012
decision_type=2 2
left_child=1 -1
right_child=-2 -3
leaf_value=-3341.5118066406249 6114.154703776042 -1920.805168269231
leaf_weight=20 24 26
leaf_count=20 24 26
internal_value=428.122 -2538.5
internal_weight=70 46
internal_count=70 46
is_linear=0
shrinkage=0.05


Tree=2
num_leaves=3
num_cat=0
split_feature=19 5
split_gain=4.26263e+11 8.99168e+09
threshold=584400.00000000012 0.0035407961697929706
decision_type=2 2
left_child=1 -1
right_child=-2 -3
leaf_value=-3208.6242968750003 5808.4471191406255 -1798.4664963942309
leaf_weight=20 24 26
leaf_count=20 24 26
internal_value=406.716 -2411.58
internal_weight=70 46
internal_count=70 46
is_linear=0
shrinkage=0.05


Tree=3
num_leaves=3
num_cat=0
split_feature=19 19
split_gain=3.84702e+11 8.67618e+09
threshold=584400.00000000012 540550.00000000012
decision_type=2 2
left_child=1 -1
right_child=-2 -3
leaf_value=-3073.9368408203127 5518.0247395833339 -1688.7402428260216
leaf_weight=20 24 26
leaf_count=20 24 26
internal_value=386.38 -2291
internal_weight=70 46
internal_count=70 46
is_linear=0
shrinkage=0.05


Tree=4
num_leaves=3
num_cat=0
split_feature=19 5
split_gain=3.47194e+11 8.54327e+09
threshold=584400.00000000012 0.0035407961697929706
decision_type=2 2
left_child=1 -1
right_child=-2 -3
leaf_value=-2953.366998291016 5242.1234375000004 -1578.8209322415867
leaf_weight=20 24 26
leaf_count=20 24 26
internal_value=367.061 -2176.45
internal_weight=70 46
internal_count=70 46
is_linear=0
shrinkage=0.05


Tree=5
num_leaves=3
num_cat=0
split_feature=19 5
split_gain=2.15008e+11 1.15024e+10
threshold=567800.00000000012 0.0015268752432093804
decision_type=2 2
left_child=1 -1
right_child=-2 -3
leaf_value=-3040.9451953125003 3979.8791945684529 -1432.2084445800783
leaf_weight=20 21 25
leaf_count=20 21 25
internal_value=-197.677 -2147.2
internal_weight=66 45
internal_count=66 45
is_linear=0
shrinkage=0.05


Tree=6
num_leaves=3
num_cat=0
split_feature=19 5
split_gain=1.94045e+11 1.03809e+10
threshold=567800.00000000012 0.0015268752432093804
decision_type=2 2
left_child=1 -1
right_child=-2 -3
leaf_value=-2888.89794921875 3780.8851655505955 -1360.5980198974612
leaf_weight=20 21 25
leaf_count=20 21 25
internal_value=-187.793 -2039.84
internal_weight=66 45
internal_count=66 45
is_linear=0
shrinkage=0.05


Tree=7
num_leaves=3
num_cat=0
split_feature=19 5
split_gain=1.75487e+11 5.11038e+09
threshold=561000.00000000012 0.0035407961697929706
decision_type=2 2
left_child=1 -1
right_child=-2 -3
leaf_value=-2621.9157941545764 3346.8539487092394 -1531.4550337357955
leaf_weight=21 23 22
leaf_count=21 23 22
internal_value=-178.403 -2064.01
internal_weight=66 43
internal_count=66 43
is_linear=0
shrinkage=0.05


Tree=8
num_leaves=3
num_cat=0
split_feature=19 5
split_gain=1.59134e+11 8.79705e+09
threshold=567800.00000000012 0.0015268752432093804
decision_type=2 2
left_child=1 -1
right_child=-2 -3
leaf_value=-2628.2791894531251 3424.4983072916666 -1221.3901738281252
leaf_weight=20 21 25
leaf_count=20 21 25
internal_value=-169.483 -1846.67
internal_weight=66 45
internal_count=66 45
is_linear=0
shrinkage=0.05


Tree=9
num_leaves=3
num_cat=0
split_feature=19 5
split_gain=1.43926e+11 4.06282e+09
threshold=561000.00000000012 0.0035407961697929706
decision_type=2 2
left_child=1 -1
right_child=-2 -3
leaf_value=-2366.1055326915921 3031.5442764945656 -1393.8128262606535
leaf_weight=21 23 22
leaf_count=21 23 22
internal_value=-161.009 -1868.65
internal_weight=66 43
internal_count=66 43
is_linear=0
shrinkage=0.05


Tree=10
num_leaves=3
num_cat=0
split_feature=19 5
split_gain=2.0179e+11 1.30557e+10
threshold=584400.00000000012 1.0000000180025095e-35
decision_type=2 2
left_child=1 -1
right_child=-2 -3
leaf_value=-2795.8321386718753 4056.2984793526784 -1123.2163434709821
leaf_weight=20 21 28
leaf_count=20 21 28
internal_value=-31.6584 -1820.14
internal_weight=69 48
internal_count=69 48
is_linear=0
shrinkage=0.05


Tree=11
num_leaves=3
num_cat=0
split_feature=19 5
split_gain=1.82116e+11 1.17827e+10
threshold=584400.00000000012 1.0000000180025095e-35
decision_type=2 2
left_child=1 -1
right_child=-2 -3
leaf_value=-2656.0404687499999 3853.4835565476192 -1067.0554460797991
leaf_weight=20 21 28
leaf_count=20 21 28
internal_value=-30.0755 -1729.13
internal_weight=69 48
internal_count=69 48
is_linear=0
shrinkage=0.05


Tree=12
num_leaves=3
num_cat=0
split_feature=19 5
split_gain=1.64359e+11 1.06339e+10
threshold=584400.00000000012 1.0000000180025095e-35
decision_type=2 2
left_child=1 -1
right_child=-2 -3
leaf_value=-2523.2383984375001 3660.8093470982149 -1013.7026803152902
leaf_weight=20 21 28
leaf_count=20 21 28
internal_value=-28.5717 -1642.68
internal_weight=69 48
internal_count=69 48
is_linear=0
shrinkage=0.05


Tree=13
num_leaves=3
num_cat=0
split_feature=19 5
split_gain=1.48334e+11 9.59712e+09
threshold=584400.00000000012 1.0000000180025095e-35
decision_type=2 2
left_child=1 -1
right_child=-2 -3
leaf_value=-2397.0765332031251 3477.7689453125004 -963.01752668108259
leaf_weight=20 21 28
leaf_count=20 21 28
internal_value=-27.1431 -1560.54
internal_weight=69 48
internal_count=69 48
is_linear=0
shrinkage=0.05


Tree=14
num_leaves=3
num_cat=0
split_feature=19 5
split_gain=1.33872e+11 8.6614e+09
threshold=584400.00000000012 1.0000000180025095e-35
decision_type=2 2
left_child=1 -1
right_child=-2 -3
leaf_value=-2277.2227636718753 3303.880445498512 -914.86673148018986
leaf_weight=20 21 28
leaf_count=20 21 28
internal_value=-25.786 -1482.52
internal_weight=69 48
internal_count=69 48
is_linear=0
shrinkage=0.05


Tree=15
num_leaves=3
num_cat=0
split_feature=19 5
split_gain=9.91928e+10 1.22139e+09
threshold=561000.00000000012 0.0015268752432093804
decision_type=2 2
left_child=1 -1
right_child=-2 -3
leaf_value=-2110.1707910156251 2346.0075550426136 -1557.5889828491211
leaf_weight=20 22 20
leaf_count=20 22 20
internal_value=-350.694 -1833.88
internal_weight=62 40
internal_count=62 40
is_linear=0
shrinkage=0.05


Tree=16
num_leaves=3
num_cat=0
split_feature=19 19
split_gain=8.95215e+10 1.16224e+09
threshold=561000.00000000012 540550.00000000012
decision_type=2 2
left_child=1 -1
right_child=-2 -3
leaf_value=-2011.7044433593751 2228.7071466619323 -1472.6672760009767
leaf_weight=20 22 20
leaf_count=20 22 20
internal_value=-333.159 -1742.19
internal_weight=62 40
internal_count=62 40
is_linear=0
shrinkage=0.05


Tree=17
num_leaves=3
num_cat=0
split_feature=19 5
split_gain=8.07931e+10 1.15962e+09
threshold=561000.00000000012 0.0015268752432093804
decision_type=2 2
left_child=1 -1
right_child=-2 -3
leaf_value=-1924.2908398437501 2117.2718128551137 -1385.8622479248047
leaf_weight=20 22 20
leaf_count=20 22 20
internal_value=-316.501 -1655.08
internal_weight=62 40
internal_count=62 40
is_linear=0
shrinkage=0.05


Tree=18
num_leaves=3
num_cat=0
split_feature=19 19
split_gain=7.29158e+10 1.10479e+09
threshold=561000.00000000012 540550.00000000012
decision_type=2 2
left_child=1 -1
right_child=-2 -3
leaf_value=-1835.0957318878172 2011.4082097833807 -1309.5497875976562
leaf_weight=20 22 20
leaf_count=20 22 20
internal_value=-300.676 -1572.32
internal_weight=62 40
internal_count=62 40
is_linear=0
shrinkage=0.05


Tree=19
num_leaves=3
num_cat=0
split_feature=19 5
split_gain=6.58065e+10 1.10101e+09
threshold=561000.00000000012 0.0015268752432093804
decision_type=2 2
left_child=1 -1
right_child=-2 -3
leaf_value=-1756.0295166015626 1910.8378096147019 -1231.3836517333984
leaf_weight=20 22 20
leaf_count=20 22 20
internal_value=-285.642 -1493.71
internal_weight=62 40
internal_count=62 40
is_linear=0
shrinkage=0.05


Tree=20
num_leaves=3
num_cat=0
split_feature=19 5
split_gain=9.20722e+10 3.40449e+09
threshold=584400.00000000012 0.0015268752432093804
decision_type=2 2
left_child=1 -1
right_child=-2 -3
leaf_value=-1836.3111467633928 2610.5938941592267 -987.47269241898164
leaf_weight=21 21 27
leaf_count=21 21 27
internal_value=-150.751 -1358.84
internal_weight=69 48
internal_count=69 48
is_linear=0
shrinkage=0.05


Tree=21
num_leaves=3
num_cat=0
split_feature=19 5
split_gain=8.30952e+10 3.07255e+09
threshold=584400.00000000012 0.0015268752432093804
decision_type=2 2
left_child=1 -1
right_child=-2 -3
leaf_value=-1744.4955589657739 2480.0642110188801 -938.09906593605319
leaf_weight=21 21 27
leaf_count=21 21 27
internal_value=-143.214 -1290.9
internal_weight=69 48
internal_count=69 48
is_linear=0
shrinkage=0.05


end of trees

feature_importances:
hpi_composite_sa=27
hpi_mom_pct=17

parameters:
[boosting: gbdt]
[objective: regression]
[metric: rmse]
[tree_learner: serial]
[device_type: cpu]
[data_sample_strategy: bagging]
[data: ]
[valid: ]
[num_iterations: 500]
[learning_rate: 0.05]
[num_leaves: 31]
[num_threads: 0]
[seed: 0]
[deterministic: 0]
[force_col_wise: 0]
[force_row_wise: 0]
[histogram_pool_size: -1]
[max_depth: -1]
[min_data_in_leaf: 20]
[min_sum_hessian_in_leaf: 0.001]
[bagging_fraction: 0.8]
[pos_bagging_fraction: 1]
[neg_bagging_fraction: 1]
[bagging_freq: 5]
[bagging_seed: 3]
[bagging_by_query: 0]
[feature_fraction: 0.9]
[feature_fraction_bynode: 1]
[feature_fraction_seed: 2]
[extra_trees: 0]
[extra_seed: 6]
[early_stopping_round: 0]
[early_stopping_min_delta: 0]
[first_metric_only: 0]
[max_delta_step: 0]
[lambda_l1: 0]
[lambda_l2: 0]
[linear_lambda: 0]
[min_gain_to_split: 0]
[drop_rate: 0.1]
[max_drop: 50]
[skip_drop: 0.5]
[xgboost_dart_mode: 0]
[uniform_drop: 0]
[drop_seed: 4]
[top_rate: 0.2]
[other_rate: 0.1]
[min_data_per_group: 100]
[max_cat_threshold: 32]
[cat_l2: 10]
[cat_smooth: 10]
[max_cat_to_onehot: 4]
[top_k: 20]
[monotone_constraints: ]
[monotone_constraints_method: basic]
[monotone_penalty: 0]
[feature_contri: ]
[forcedsplits_filename: ]
[refit_decay_rate: 0.9]
[cegb_tradeoff: 1]
[cegb_penalty_split: 0]
[cegb_penalty_feature_lazy: ]
[cegb_penalty_feature_coupled: ]
[path_smooth: 0]
[interaction_constraints: ]
[verbosity: 1]
[saved_feature_importance_type: 0]
[use_quantized_grad: 0]
[num_grad_quant_bins: 4]
[quant_train_renew_leaf: 0]
[stochastic_rounding: 1]
[linear_tree: 0]
[max_bin: 255]
[max_bin_by_feature: ]
[min_data_in_bin: 3]
[bin_construct_sample_cnt: 200000]
[data_random_seed: 1]
[is_enable_sparse: 1]
[enable_bundle: 1]
[use_missing: 1]
[zero_as_missing: 0]
[feature_pre_filter: 1]
[pre_partition: 0]
[two_round: 0]
[header: 0]
[label_column: ]
[weight_column: ]
[group_column: ]
[ignore_column: ]
[categorical_feature: ]
[forcedbins_filename: ]
[precise_float_parser: 0]
[parser_config_file: ]
[objective_seed: 5]
[num_class: 1]
[is_unbalance: 0]
[scale_pos_weight: 1]
[sigmoid: 1]
[boost_from_average: 1]
[reg_sqrt: 0]
[alpha: 0.9]
[fair_c: 1]
[poisson_max_delta_step: 0.7]
[tweedie_variance_power: 1.5]
[lambdarank_truncation_level: 30]
[lambdarank_norm: 1]
[label_gain: ]
[lambdarank_position_bias_regularization: 0]
[eval_at: ]
[multi_error_top_k: 1]
[auc_mu_weights: ]
[num_machines: 1]
[local_listen_port: 12400]
[time_out: 120]
[machine_list_filename: ]
[machines: ]
[gpu_platform_id: -1]
[gpu_device_id: -1]
[gpu_use_dp: 0]
[num_gpu: 1]

end of parameters

pandas_categorical:[]
